solver_type L2R_L2LOSS_SVC
nr_class 2
label 0 1
nr_feature 128
bias 1
w
-0.0282245781752686 
-0.07782260378275434 
-0.04143639644822859 
0.1420669319191334 
0.01207388555332176 
-0.05979810517413203 
0.001426495093736409 
-0.07681279148148489 
-0.0897781492324721 
-0.2314144601984528 
-0.08299481922689823 
0.09641776475183052 
0.1561192306194283 
0.1012130688531509 
0.1059245011749576 
0.01053154226883724 
0.03469078237625191 
-0.06682080397052528 
0.04341096847984832 
0.1637052852132425 
0.008049197528465191 
-0.04140463779174211 
-0.1241808647026909 
-0.06978053925273943 
0.06204548699241664 
0.1591359984130548 
0.05217602984358533 
-0.00939890029235883 
-0.05108594236289574 
-0.03543304000971786 
-0.06156799350016719 
0.1077369810753818 
-0.0536954842097213 
0.03177533053228126 
-0.1473133821272449 
-0.003711712717126399 
-0.09060947412153192 
0.1178037698078043 
-0.03840043086045152 
-0.01907956656835222 
-0.03087852254522792 
-0.1117203434996671 
-0.1627127399234894 
-0.07736363308297665 
-0.006851359443456316 
-0.04899021881358776 
-0.08456903640873016 
0.02919285339085627 
-0.1560859587720228 
-0.1468940852860658 
0.06781163181417449 
-0.02520967328814777 
-0.03542893029956699 
-0.2348227697586895 
-0.1399896076065139 
-0.1261901847242302 
-0.06487809763850176 
-0.07226660795526846 
-0.01536019088227213 
-0.0166386156534877 
-0.07316335480256413 
0.02754525927895179 
-0.01435235689023232 
-0.0290031378418959 
-0.03974680525056892 
-0.02737060316498717 
0.04717422128399509 
-0.09587782267454938 
-0.03311932442522137 
-0.05158597097685623 
-0.2692208926858158 
-0.02685923070931727 
-0.07879797653432706 
-0.07133973642053576 
-0.07942312484636056 
-0.09246918211022347 
0.002808354325345246 
-0.06629584104657922 
-0.2103159936815994 
-0.03279693356390501 
-0.1916731604770918 
-0.1958509224536646 
-0.07000908229856238 
-0.09486136504243482 
-0.006589154396580622 
-0.01039812469258093 
-0.08921497432603846 
-0.05212300772920486 
-0.2440431265838833 
0.01674602100611371 
0.06059466130442979 
-0.018364503063303 
-0.02352076043033356 
0.0006703258431107982 
-0.08752232875800263 
-0.1403611442464163 
0.2412975456385964 
0.2984833397296866 
0.02380354933578429 
0.2294028511942428 
0.05500714981720765 
0.1147904990340229 
-0.01323005294146139 
-0.01466194412672198 
0.1143721672994944 
0.06165121355021246 
0.0556353517958017 
-0.06792401067860661 
-0.005823045220880448 
-0.05420615229087651 
-0.2426704311968966 
-0.05887319738095488 
0.1164554269463794 
-0.03351897029137468 
0.007854842286968798 
-0.1250587096890632 
-0.05179277633764398 
-0.1281319969453032 
-0.1500185943207196 
-0.1062531291657692 
0.06708835679864712 
0.2471226944299006 
-0.006223573076111723 
-0.06566816443499771 
-0.0910351239213659 
0.01810141552425928 
0.1807322451744331 
-0.02910029772004227 
0.6733590410871942 
